{"args": {"penalty": "l2", "dual": false, "tol": 0.0001, "C": 100, "fit_intercept": true, "intercept_scaling": 1, "class_weight": "balanced", "random_state": 0, "solver": "liblinear", "max_iter": 100, "multi_class": "auto", "verbose": 0, "warm_start": false, "n_jobs": null, "l1_ratio": null}, "params": {"classes_": [1, 2, 3, 4], "coef_": [[0.7589216151244996, 5.19488206893147, 4.813659800329255, -5.326364002901098, 2.1641915051434366, 4.91198733947243, 0.20409580098743105, 2.576761261501801, -5.405569259372064, -6.555475483510781, 0.5716954135351083, 0.6651059620672811, -6.674774788346674, 4.21523495023534, -0.34511863647057844, 4.0043820017357445, -5.601398341585331, -1.5451004787734999, -4.682170920461951, -5.86173846628327, 1.5757855425840628, 1.1980298038111534, -2.3519351786599847, 5.062056374222032, -0.12613277755339689, -11.422045307283572, -6.781064664268253, 1.9013539173286336, 0.04258533829374951, 5.736848922521704, -3.9499726550579903, -1.9847957561192227, -2.9010022060443736, 5.806955325703491, 3.273776555414614, 6.859608215370233, -1.2698753824236473, -0.8661062142303059, 0.757938779532059, -4.520700091310083, -2.3880921781008593, 6.032620546305508, 0.8325904687024014, -5.541181997100722, 1.2183681732482523, -5.870962983948853, -2.697303456143174, 4.513236980233647, -1.125695750060428, -2.553956674905828, 4.597952788447668, 1.4344999074668874, -4.241677274294974, -7.353738198274376, 2.1781787832943236, 4.414953184981673, 5.305012722447075, -3.9733904682598538, -7.131519579385447, -11.737150382690412, 5.857166902544024, -3.232452936856255, 1.1229788846928748, 0.935533472429447, -1.099934843783756, -1.0157409135909408, 3.865782435939578, -0.5090606380152853, 1.8923597814036082, -3.978633133928758, 12.1664563745804, -3.3218624673450203, 3.0900174168466994, -3.233338262616603, 3.388551905618975, 0.824207558805232, -1.8812913493254182, -2.6410942301768348, -0.853754653370334, 14.007392046793003, -6.392297245957257, -0.24644865862751086, -6.77409818052129, 2.499254663129708, -0.4249517984606003, 4.590907711087877, 1.4490799261562068, -1.9281836395220437, -4.078932833248772, 5.3366853939936725, 6.933478930282904, 0.7748386682675714, -4.622412622423946, -4.097085009864588, -10.172318843142714, -0.29603695917235273, -2.2522578840709095, -1.9033633617589945, 1.2827745654536982, 2.404741103491897, 0.3413974078787945, -6.339682299306553, -7.843430555178865, 7.631601455737783, -2.9951038910832466, 0.9489566828428588, 4.908134619992474, -0.11142755147725339, 3.610881460099976, 3.3424015727374554, -2.1948326354050947, 2.458888899858421, 0.12812267041185943, -8.697265083710468, -4.809992096189199, -1.2909485470758149, -3.9811480604498506, -4.054188702606089, -5.788946752048787, 1.4064095375727637, 0.1976493385345593, 5.0149851873717655, 6.078284425707366, -5.566756569289439, 2.441604854192492, 0.13197868100388005, 2.4668578112359976, 4.619109702407261, 2.52586284969289, -2.966576367669361, -2.6710097704035616, 9.81885279042657, -0.35342712104376833, -0.191755567059278, -4.247759154595449, 8.245388777569117, 10.10175928864594, 1.7442690917914094, 0.15314591890976442, -6.8422538396238, -3.01698320056613, 2.7243400383240224, -4.334919926985653, 5.316796735789854, -1.1633400851613929, 0.7837142958565927, 9.192001471236681, 2.5791144455588837, 0.5608579877795195, 10.138633291002598, -3.191203809445228, 2.8099160741283717, -0.8014928460219771, -0.49909120108946825, 1.3082943253463706, -2.9797283601214253, -4.759059902274718, 1.8949555914472271, 2.3600445514884996, -0.3493755460467931, 0.2368374232876098, 3.6090225290323916, -5.188510748800572, -0.0796897557069041, -0.8019068200997376, 5.934297286572944, 8.948698868985074, -2.0926252387124635, -6.436044483841643, -6.977972141109014, -2.371932042382929, -0.6939086072311774, 0.6964931331738282, -7.198577845399054, 3.073931862273074, 5.3554345948524045, -1.3560287065785628, 0.6949102989936712, -3.329936600373549, 1.0575288946664247, 1.791084715485989, -4.969534393133864, -0.6516947205911583, -0.7460915069895865, 6.069439487696956, 5.239897378432247, -7.222039312076377, -0.9012208592979795, -4.316580804837, 1.8291695900002247, 1.2355163576464356, 8.889812392858797, -2.1847264421763346, 1.9618920860208307, -3.5977389893752196, -0.11527929860844746, 11.98035320603845, 3.489655755947955, 10.066731401090449, 0.38751062980672724, -0.5870736279185123, -8.169511398505623, 5.138362544412297, -2.3500218820476024, 4.141709155197378, 1.4738009372386818, 3.6170922210761884, -8.60281642388548, -2.1163807204615006, -5.672219724297403, 4.092058450993785, 2.0466650540137823, -5.1366364026673885, 3.9265960909680233, 5.154433341706856, -4.7693903494363665, 0.460316621198211, 3.5977413912544045, 2.95037976108393, -1.4783358330467375, -2.929654951100587, 0.9530570422075024, -9.49994228063393, 2.8910547298914744, -9.218071727229374, -8.846279335972419, -0.44906818784316294, 6.1862902557314685, 2.461194594685149, 2.374669640410366, 6.717706141028279, -3.974371976814025, -4.344812530946762, 5.887050104761276, 2.619324260719338, 7.534271357782699, 8.25442128743115, -1.2672276059962133, -6.390952234928712, 0.5448700543527458, 4.119608831046812, 1.7588837085843563, -7.660568277934812, -1.0329180006269352, 5.903866053891539, -0.1501138601422594, -1.7753818567057347, 0.6991181652566143, 3.1388768708449364, -1.7216847466699354, 5.882896464995976, 2.407485269229957, -1.7291660584649313, 1.861597458219344, 6.762294968931689, 5.617406123085999, 2.861536460576451, 3.2583008525728725, -9.057273342936293, -8.169370273075522, 3.1766641312617865, -3.6999049489880527, -0.21139444634736274, 5.75675488677869, -4.479752886554773, 7.938833012523691, 0.43293796366347825, 6.618987361792867, -3.2989014980215488, 2.44633904606983, -3.597956781509888, -1.6119344704500653, 7.190129462352547, -2.574548889715255, 2.153615339458939, 2.2015239879000292, -2.111940531294371, -0.21796990973074132, -2.650178376411462, -4.217944448971293, -2.1477314442478157, -9.211155230364287, 2.5800937575849314, 6.099535459215394, -6.1008873255349485, -2.4356941734697695, 7.155270384885068, -2.766924100130655, -2.5936248485885915, 3.1642934943828593, -12.697972835220428, -1.146868756127666, 2.7996139449442228, -3.39079927320636, 4.203371676540148, 4.151597208855237, 0.4740664299916175, -3.5838420430382985, 2.284359843004437, 4.522037235667356, -4.095815612067417, 1.2974170015407163, -0.5511144860715445, -0.4731761753667423, 5.422594440332454, -4.779887569856672, -0.16694939273737955, -1.0782130747128182, 0.25870374915831873, 3.957577991477821, -1.5992290611133955, -8.596289932522915, -0.5519566370895902, -3.8160512614529667, -3.327562525961293, -3.3771371746310543, 2.8312770704527632, -3.826245969465021, 1.511004495087573, -0.6495396798426056, 0.1906700204417598, 10.266379993007549, 4.9306928707226865, 5.969603641317867, 4.382684244006294, -1.8056090618165592, 7.073419145632062, -6.482421870611208, 2.0412539697073018, 2.7673272549311765, -1.3507011339633188, -1.176332889044712, -1.3662146185690407, -1.3047131509000567, 4.448428692126539, -1.8635147798006295, 3.5484463994740327, -2.641758476899341, -3.2075879570364205, -5.934348890446358, -4.704818104593661, 0.35585254737988714, -1.1680554641376175, 2.9818559927236192, 1.3355504211540767, 1.1293498925314818, -0.5720954392322241, -3.1606444649669747, -1.111596921994857, 5.24960267671533, 0.3628752912100702, -0.03869703212219347, -4.257448013777268, 0.43010340753822623, 5.909715596170941, 2.6433835885463983, -12.50974612427179, -0.27914139078763955, -7.36102511834068, 3.86666012057707, -5.7516860292126255, -3.473808271716506, -5.876254324710638, 7.211115464330625, 1.7627846961449913, -3.180230685117563, 2.740880583939532, -4.8195357496677325, 0.6896300582440094, -3.2177808488373056, -1.2564980016265455, -4.4833735821247185, -4.0498299026876685, 6.178020595134439, 1.3910364271449087, 3.5313690087956835, -1.4248325135428734, -8.2469661890892, 1.9501510551284618, -1.647852865065237, 2.2180837058030565, -7.7067529627026214, 9.71572505213812, -2.2866708511303733, 0.7536153162116663, 1.4332410607018387, -2.4793441931254394, -1.4247198707145379, -2.0435618759516307, -2.053533247497052, -2.7288953406555425, 1.315966702730593, 5.442241918332685, 6.82013452405568, -5.143406236919365, 0.24315150721249293, -4.386097567397795, -1.446563494005711, -2.849499054856646, 3.915996467689651, 1.047069406558118, 2.9303423836814093, 8.272424329575918, -6.540074474948012, 3.8556382541674465, -2.7469723262729078, -1.6419970368759589, -9.31358972647599, 2.5328822715077557, -9.401920711743891, 1.2563620267327178, 3.285273883738687, 3.4884659272794303, 4.109990833256145, -5.261214839502691, -3.1266827357027944, -4.484336354788553, -7.313844059865298, -6.881894033727072, -5.078871388344537, 0.47610656552400155, 0.7982533569471449, -3.2708734848197936, 0.6000897126814486, 6.719441884729938, -5.2960833754828665, -2.632064311629668, 1.0032466347074747, 0.12754974846437284, 0.7402992235328473, 6.319841752470158, -2.7607394842728468, -0.23949372382482448, 3.150521056854424, 2.301582074872341, 3.7804277093553122, -4.103228907842945, 9.230947004257834, -1.1715724432445593, -2.3175375449773052, -10.682633661063374, -2.3160205855962115, 0.11718021020314398, 4.353793182865698, 0.49795724292380045, 0.0431317840798111, 1.8135918620117664, 0.07294175362767989, -4.77703854154906, 0.7294622494000458, 6.058114652470281, 5.039206697223766, 5.454101766024122, 6.28922912370806, -5.91056729450535, -2.066443847234111, 3.0530785319297107, 7.191755256291479, 1.4160688617928117, 3.8147771461730176, 1.9056877121682727, -0.08320459305116878, -2.5800748992659903, -6.2116977247291505, 9.957786930588595, 1.0066187314176243, 9.851439242495532, 0.9374661532117854, 6.436875033809354, 0.260658671557537, -6.916114261419035, 9.082979793632997, 6.595238611303271, -3.2410532408182346, 0.2177385241321063, 2.0637284309628643, 1.171162039098862, -9.531682935686508, -1.4336322920846618, -8.291365538431865, -5.368132979731628, -12.66113784959096, 9.658424948722727, -5.278159961603514, -0.6044460323273009, -0.3127842042422017, 5.948111574993475, -3.011534658708129, 5.041077344355821, 6.598813497203444, 1.504951118540256, 0.49605962106292195, 3.327334387258033, -0.3274083205213119, -1.937452529346063, 5.34169971088315, 2.3900032052127926, -7.818090250371931, 3.2425963115966896, -1.397135280802078, -6.687420302300076, 1.588685950181421, -0.008535864663741491, -0.20809094058316657, -3.6249692246129586, -1.057813854812718, 0.743612421104993, -9.535961018652415, 0.8192287920039534, -1.2745466953553142, 1.9007212786839456, -3.4000140271096604, 3.9273670180087037, -2.8726103676639316, 11.840737361047157, 2.6359444049128857, -6.117783789548359, 1.555402178200478, 2.814822343305595, 0.35883340344447096, -2.206636053821543, -5.978124015453814, 3.9201903124998347, -5.592598958548047, 1.9140012932115253, -0.5578766523104522, 2.0254834173460328, -5.193771111137063, 2.022090671738766, -6.876820383267477, 2.896372543010709, 3.1498297678945124, 9.44876648543787, -4.829019787304355, 4.831428415883698, -2.518977206238969, 7.397229937533322, 3.8658176807513716, -3.5915266924537597, 5.969516279152593, -8.182463044059467, 2.491422471114444, 1.1266653283136332, 2.2324098740063976, 1.6190641655135556, 4.300973749679056, 9.909229678751137, 4.171462583528409, 0.9520716211027109, -10.912278878302622, 2.4345000505387313, 5.444191176421785, 3.5570629991594944, -0.6270845557497554, -1.1571427858832224, 3.0892822543802483, -0.7348660163641071, -7.843156616821522, -2.644078145336426, -3.2502890214852505, -4.887369636121881, -2.9925516102992114, -5.544195586991263, -0.4673075625840479, -6.237140933927501, 0.7342612897522496, -4.657324825287614, -1.997416112747855, -2.4096450221307752, 8.656809049649697, -2.1766446380261364, -4.044678802546003, -1.7003441192709385, -8.541374497607432, 0.18899289467888666, -4.1896959756619525, -7.7192957224249765, 0.28060235627615193, -0.3057082012738927, -2.0345924074604356, -6.896243202370231, -2.53868473134161, 7.239652607985501, -8.270589541203329, -0.5562682422108653, 6.354202363508136, 1.4326460242161425, 3.446869953698457, 1.2791118534936339, 4.835768546290504, -8.454549917539927, 3.3871054301281496, 1.533671530186837, 5.3658857111721, -0.4150722837281915, -0.07410874732444897, 3.34315245026754, -0.25597742617990005, 3.528773303391231, 0.6782034076588257, -5.213435172677368, 4.858763069185968, 4.308069984267972, -9.762314967687777, -0.3167435044850135, 4.366217142859754, 7.624752587487777, 4.231081996863325, 0.22423102381864946, -4.67583890072557, -8.246078211850019, 7.747192339623402, 0.26663252360800843, 4.4969617987027535, -5.926108237809265, -4.506072264433711, -3.136297434118836, 0.16135610113475993, 6.53269252933389, -6.497918562706147, 3.6718557681359925, 12.878943175628878, -1.23466720205055, 5.000784517472947, -11.246906554868525, -3.5347355999118344, -1.3010776921860985, -4.004957912121754, -4.370645190180641, 1.3043562484661135, -3.258899956089646, -4.056730333297419, -3.4239638622234567, 0.6902018629826903, -0.6365204753270326, 2.356152465143147, 7.375019654786894, 3.61664527430442, -1.0614188443834385, 2.3315400280174, 1.564484786751229, 7.010346545727975, 0.6162574852921018, -6.886372653267689, -0.2558757200948871, 4.4207914151895435, -3.621492673529363, -0.08964616177354316, 4.158245584407749, -1.3716088903963535, 5.797070935242803, 0.13166765577426254, 0.770048918625687, 5.458114713898517, 0.2622269341412954, -4.912396880883146, -4.09936035258647, -0.504793924624094, -3.934684795436885, -4.357469335049523, 6.095313977842311, 1.041437510051367, 1.315224254212114, -3.9146192208126798, -0.5837660448572475, 1.3651354725780953, -3.283274038177849, -2.7605106924807927, -1.0338171973063368, 6.825950425248943, -9.469372353387374, -1.941890468664213, 1.3286414170800611, 1.099675441634964, 13.84514846010763, -2.8777205937186117, 2.7617667090058773, 4.234213181793172, 2.4811240078126318, 1.3144503408841264, 4.717604538242119, -0.31395396651969576, 2.871591577872752, -6.664726653735418, -5.72831098091521, -1.1560827391924093, -6.231651993460261, 2.878886796452017, 3.780982748797604, 1.7841024217874841, -1.1498838062580683, 3.2175227813694893, -6.657671134261279, 2.5998153170814127, -3.455462471054542, 2.827661521122124, 1.2564862193250188, -3.1254364219398547, -5.671895605700184, 3.9845633402488803, 8.007743638671219, -3.6336461925826695, -1.7303435982041673, 13.399107767920585, -11.021066562506565, 0.056846122143768066, -1.229561457990034, -9.90630927943332, 2.2521287187004, 8.502437953705089, 1.2091024848291019, 4.920050278787546, -4.918471940890105, 4.906949247743845, 5.805769346707533, 3.5125185777497667, -6.222208265512126, -0.7205470402370528, 7.931466953495949, -5.9764744410936625, -0.3901907485058954, 2.236460032910031, 6.237435651880596, 3.603213169177161, -5.110685689961718, 1.259361178747185, -6.401531244409556, -2.2890621694133295, -1.4148864033247404, 0.13935706568234735, -1.9309251586596357, 1.8481228803901122, -10.824138658616855, 5.003989011771263, -4.993777079994643, -3.2278761423564015, 3.5295465814793348, 4.675711054272914, 4.397735285058861, 2.6694859952992602, 6.578689314476381, -0.8055427805251301, 12.234588746117845, 0.7859994041517816, 8.201330789407812, -9.83965796751296, -7.535408226455695, -0.8704478323597433, 4.7126836807051555, -2.094819743095588, 1.9995029482161268, -10.671544107393467, 6.560695320011175, -1.0313628300812354, 3.2535745732382026, -4.936840488683151, 4.860438220260129, 0.6933251862281747, -0.9408587152012062, -0.8555453873408656, -1.925696215234265, 2.7067754935426236, -0.8821769610229013, 3.754274265697252, 2.877892776090183, 1.595669031478403, 0.9896478565835298, -1.672213727215731], [3.6771922618896506, -6.53306958482893, -2.0952119765930997, -2.690534531832345, -2.0721046258623934, -3.1835689708410797, 4.914731730504827, 5.330274624327405, -1.4862358390062727, 7.543495230063673, 3.060596670466306, 5.294721427527646, 1.4937591172161906, 0.46741773224266686, -2.8302074192212205, -4.020508221061276, 2.091738241850574, -0.8406850322048678, 2.5885019622123853, 8.844171752043506, 5.084462921908371, 8.661879386928627, -4.295439801445479, 4.038989353745607, 2.828676499683044, 10.230314240051923, 2.346732147129126, 6.407074411267059, -0.20249052082115288, 6.604024387980555, 5.628193082602664, -0.6783620620351959, -0.8198899524124238, -2.838470763757514, -6.242522041384546, 0.5238690925425993, 0.9416747114505515, -2.617496059152826, -0.22890138940429755, 1.3786410218067848, 6.450586239791436, -0.9723904150897538, -4.8416691526797555, 0.7043216707233029, 5.1003028996747295, -0.8522971226994818, -2.542540231843321, -2.457917980875638, 2.539004134292115, 1.2898469278248044, -4.20148200752791, 0.059605874509064016, -0.7833362415791854, -2.3361894043872615, 6.975463975549576, 1.784356008003779, -0.6870191202759379, 0.9467287311861017, -1.5747328492088857, 7.272683932302987, -2.059069670140945, 8.980323810439637, 2.3862307397814173, 1.002287966328931, 9.367810340973936, 2.6123580281911845, 0.933196187273842, 0.5138684317535919, -2.841186823383093, 3.348839322656735, -4.327378708338458, -4.269156890052807, -5.5863333963422654, -2.567094745112363, 2.716192717605148, -10.239415600961655, -3.481368671600955, 6.388745351985614, -8.491726008837631, -2.1188623279158576, 2.660310694560945, -9.03775772943068, 6.7509843418916065, -7.022671957861823, -2.476765485183578, 3.3211828224480304, 3.463307615286869, -1.6912682763089173, 2.2863930306030147, 1.4130747242818795, -1.3525887229195117, -4.576739264663476, 2.589841836155799, -2.282120474440265, 0.9548995156109694, -4.4594034169411865, -4.860508551783419, 0.2915756829179606, 3.8525020630064093, -2.632791689519542, 5.838854544063168, -5.033454337339766, 7.751995455543634, -2.7546883465748153, -5.019589753345405, -1.6687500577206884, 1.45798657804692, 2.7528619950968505, 0.9229565958502608, -1.0651596400542198, 1.32553809166399, -5.580104801232446, -1.8082183434428254, -0.7782113096486692, 5.004873961047427, 0.38366595536357706, 1.996887116582422, 0.2715903029968146, -1.832760119298331, 0.7396332416671492, 0.27304019558389886, -5.823505946066854, -0.2895585251694325, -4.347089350685446, 5.172256727697687, 2.3349804377306507, 1.8058309489340327, 3.6632865711941482, 0.5348381936969325, 10.10597591752652, 3.0645128227729845, -3.8073997113098046, 3.451363017780786, 4.171246235515711, 4.804510772498422, -2.981402258071199, -8.350574218533954, 0.556532095273597, -0.3728915370228123, -1.3959217428060993, 0.6061622024828314, -2.341302317109713, 5.908415108724116, -1.6141341770797946, -1.650526591231711, 0.4515649822986319, -7.281210789276338, -1.3640165788577363, 3.512712353845982, -5.385467263893774, 1.9331708615396257, -1.7086890974187552, -1.667149814609082, 0.7678203247091177, -5.2269580168137635, 2.4674427045841876, -2.8046748616918924, 5.873241438013391, 3.042298983981278, -9.153482419099449, -1.4927877383763275, 6.013191110658146, 0.25616314973451, 1.9548917564234103, -3.6126175716237694, 0.9225013798927978, -6.324638923160135, 1.2400463595262365, 1.1981656225942348, 8.588352135957889, 6.2856549537326245, -2.950789652795881, -6.844697214613288, 11.166926756922585, -1.0903109739166268, 4.444615443897171, 1.657133033739393, -0.953306301584732, 4.464779275122925, -1.4543322108188983, 3.6762695084475894, 0.337489432262238, 3.6035323343524612, 6.660758294132243, -3.269924343055686, -0.7744834894836596, -7.821558857079909, 2.6241000009090563, -3.1138849477305772, 1.7656300389845152, 0.8392890391641206, 2.713745513032502, 3.4340683514923414, 5.29877431109726, -0.06660221045280779, -0.11529701475069437, -9.221181398676423, -0.6890233856121777, -0.0037214394829108988, -4.8330630347115955, -6.984566927217695, 1.758012998832838, 2.250698172297821, 7.365154535922863, -1.193351318809403, -2.2120384277683214, 1.2394518762909823, 3.3565065251164694, 2.3945210162045227, 4.450557148748525, 2.206453893103673, -0.34766968896345585, 2.6456131641355274, 1.9971395670862102, -1.094033050273675, -4.006211787804782, -3.9260108192190777, 0.7434005892178853, -4.3402597369586555, 1.9200477496639832, 2.6234992616239166, -5.434163468391766, 3.37432259430964, 0.43191778150360555, -2.5497249930855372, 5.451443595432365, 0.455688452325973, -4.677754772846445, 0.5736165714200904, 4.27073668327201, -4.572524536036629, 8.866818969002127, -6.890196310916517, -0.4858180181654551, 2.0099023207859736, 1.1390598692197347, -0.4561726897047164, 0.5151390541369932, -2.7554431030108772, -3.408698389384774, 1.9082539987512794, -4.580735286108185, 4.563099054404729, -3.085673833002446, -2.046284426187153, -5.11891155235922, 7.2504119299282666, 4.359592390286489, 0.6762211860608828, 0.34116242984263184, -1.82071497822868, 5.071121555692131, -1.492653879315517, -1.8672433662796686, -0.6910492958243083, -3.0270216895981714, -3.122649088759358, 0.6123246626154856, -1.9382400252082739, 5.50582902188277, -4.579621339207437, 1.769706837413674, 8.49760743638147, -2.0009471836211983, -4.125577325520534, -5.711180742483656, -2.017726169093977, -7.014543830676506, -2.757856436417464, -10.65551646412601, 6.404497753445072, -2.5684790663870216, -5.12282349614183, -0.8595097038123587, -6.977049141995714, -0.5380478927272483, 2.5188767819114473, 0.9577605546704601, -3.610411191319967, 3.7401329170471853, -4.1003743128438535, 7.414807496228077, 0.9063084321877284, -1.1236885662352356, 4.593808900302341, 0.09789965607549166, -1.6785137511902826, -3.623208922374686, 2.4031575882563216, -2.689099318260449, 4.205406150513281, -11.736229700005206, -1.562355820626442, 1.8768995604790681, 5.405606249523208, 3.475797175911379, -0.4468622238560981, -1.1649869392603736, 0.8718633125972, -4.856394192492602, 0.5289855820826508, 0.11515844386861553, 0.26048130027881633, -0.031164309651762798, -2.4870917878636494, 1.9462847705912916, -2.677478234546484, 7.821886357346112, 1.1441572344133166, -3.3839770446800204, 0.28900474968596673, -3.214488591997951, -2.0091625118325225, 0.8430777535267191, -0.3171242672981639, 4.8899121793160925, -3.9819798653872724, -8.138702630846351, 1.707233498170777, 1.5714543795252114, -4.405693030652342, 0.1084618530637493, -4.9014481701186146, -3.3683684131736014, -0.4844977249604536, 0.3751031627545734, -3.933873513684092, 3.315443277399486, 3.068352573436189, 4.2395856420324405, 1.3659929998557943, 3.2319515061536133, 8.22958376455824, -1.445434419261497, -1.313049127020433, 5.250071586117976, -4.106814368183425, 0.16839150960675187, 10.243461849380433, 7.61441246814785, -1.239639818875649, -0.8444868839285763, -2.6219315009541715, 0.8422150273626149, 1.8814811543493573, 0.22558816728613287, -1.777384666156368, -1.076831646924136, 1.5142584729649133, -3.7367189117378397, -2.2660812555337095, 7.080255299719041, 6.003592320704977, -5.353614316049657, -2.9623420844592734, -5.607176895218018, 2.7851074651726506, 7.547646140323997, 3.8971764325357046, -1.9702640241900262, 3.5534278741617897, 3.4971118207084047, -0.5623351997135714, -4.116579134457392, -3.0383461680832617, -7.613614356250949, 4.810146488194011, -2.2733762549203154, 1.0432259697091928, -2.4583789380097634, 0.4793424866032692, 6.73136238985886, -0.33286989185338417, 3.4686737199293027, 2.361997136137356, -6.516652669896428, 3.717825826327084, 3.093613934603058, 1.0232704758670794, -5.227484754933822, 8.424199705653155, -6.2347866792044035, -2.957820720784356, 4.163647762788638, 3.0930602640891656, -3.9707153155049393, -5.132704940224102, -2.2842144600993604, 6.288813592491915, -2.4398747811335433, 12.465410809644457, -2.72196162721216, -4.482043284088457, 0.7850852687958094, 4.4360346944107, -1.5503258189691622, -0.9445677813087903, -0.5459636923853736, -2.4758507162426198, 2.8718857498604953, 1.9642341489931603, -4.688964361081118, -3.4664219948058714, 5.534619598873508, -13.123560569063812, 2.3672028469277957, 3.655336474605118, 10.222882221873519, 4.6265395814060035, 2.0615154297366147, 4.776416557782834, -2.329261344203174, -4.542969230945225, 3.439423285936946, 1.8143543245709974, -0.313725361610428, -1.3133942308333704, 5.184187416690779, 1.2942028242059138, 4.32040745812527, -0.81234654550317, 2.828558444014503, -2.8603923328320566, 5.268219113159697, 1.9470781992494917, -1.0941103422598473, 6.311034325363266, 1.6484410713878002, -6.366579245807629, -7.837250375144767, -3.6157970779558175, -5.246247126660068, 2.612795480956187, -2.2045506217283246, -3.398643965688556, 6.4835551599023535, -6.550484813636898, -5.991598136972101, 5.044415641942378, 2.1318802611179994, 0.9349451901046719, -1.7966758666670357, -2.534817145388001, 0.11928786204425255, 1.614834020595191, -1.1355361401650106, 0.8472981659094179, 2.192425895364996, -3.0880562337634343, 0.7057737325620825, 0.45543915536862506, 4.677727460261252, -2.6758481488104593, -1.75613757774576, -0.7123032338224057, 1.0804763875429133, 0.9247017803366856, 2.1498006960801894, -0.8733282989072214, 2.169471049903007, -3.5215889919014085, -3.6867548584814163, -4.19897769318368, 0.6032383697009278, -8.293390367508906, 1.0635826364637226, -6.35473250698487, 7.5983133662114914, -4.054166135754346, 3.2117858809228794, 1.2173891549478597, 3.0184804636482343, -1.7794499011360685, -1.606334503873057, -3.3556143974214647, -0.26306206308349506, -3.911672692402515, 8.637423680769432, 4.880398200943724, 5.640719553897343, 0.8653768175299446, 9.005098214551792, 0.22148115755555922, -0.13430151806113613, 3.818228731331884, 1.645303981457962, -3.9870398328117775, -1.058020111944155, -2.528700713398972, 3.6442145416951437, 1.5950561813370479, -7.672753332186734, -4.979420098154699, -7.137321374547477, 2.516581126549711, -2.27049924911919, -4.721406657570795, -2.128247156995597, -1.8529909564709415, 9.78052011895662, -1.0016860717792364, -4.930773638853584, -1.3398873895070362, -1.6555177877050562, -2.0116446921231423, 2.6605978297205812, -1.7616100905183154, -2.827551504482591, 1.5025387068704348, 1.0553393401253741, 2.7662844955182435, 2.984277779653219, 12.279568662736798, -0.7852475148138774, -9.664849050478296, -3.770277557334248, -2.515867121891488, -3.5995695161927044, -5.859078514413115, -4.409387296254292, -1.3594423457667066, -5.658149853658354, 1.2610808039508077, -0.10746516640294312, 3.142227898666514, 7.620874370440445, 5.549115765763096, -2.7627416910831353, 0.7028543023289703, -0.4555736744656868, -1.5497489564402223, 6.375379287022622, -2.705072088375784, 3.2596444782178744, -1.4752236984326101, -4.549103101310308, 0.28409712855131763, 1.9757697967372054, 0.9364309574682436, -5.5089248818688565, -0.9233140631741227, -3.8239006106865427, -3.282771670782744, 4.328540726003371, -1.0390511298937897, 9.144813307573779, 1.9100063179410949, -0.8105968315801158, -2.82078285326881, -1.9032938660335545, -6.781727053821215, -2.943185688547989, -0.7226120505247944, -0.29291793230103913, -5.10913580802156, 2.091280439748845, -0.14874745963501898, -1.4518978401979925, 11.430662099452768, 3.1784180192683156, 5.646150900622686, 1.3297109931578452, 4.500368370798243, 0.32311430480226483, -2.6498626401718512, 3.434566340471626, -11.25193132509839, 2.425119195572038, 2.22492717600669, -3.1591641371936108, -4.096072696345271, -0.5417607449238201, -0.654933417435451, 5.8789213290890325, 2.5616001334708094, 0.8765718988478265, -2.844086731066397, -7.193320511574912, 0.7025181587460356, 5.152400455352348, 0.8900266103005906, 4.177104898915274, -5.9361309007307215, -2.242207083935008, 3.1069459605722516, -4.102269247312929, 6.2724745266300035, -5.300663449605873, 3.9557060117660945, -2.8568229440106103, 3.0697511185265514, -6.165655373413555, -6.679935567842696, -0.6869425880183139, 0.8137281328461804, 0.879374546285708, -2.3494082213767906, -0.9340903015313544, -0.34047609842017557, -9.598972380874109, -1.3931227159817454, -5.10590024241274, -5.518371642562326, 7.433448504735465, 1.5819509248478163, -0.09172211662317009, -3.5491374494862677, -3.02124302341395, -1.6639531552722828, 4.5857957780812235, -5.481616990197458, -6.848936995025171, 1.6081598462354747, 0.726335366072588, -3.39541731927077, 0.06993424597954881, 1.2398019555629303, -4.450324327725669, -2.729964626647294, 0.4607708814139841, 1.369337255150335, -2.276030006568997, -3.3990150625260367, -7.241810936121187, -3.5730617871183816, 2.371680915013079, -3.3985985638519267, -1.553922219165445, 7.124314316643538, -1.448845171713358, 0.29265593171931203, -6.306265972136666, 1.157851919905164, 0.29794449181018556, -0.1692750711429806, 0.29381999159968253, -1.2470043019265122, 0.9209450637090937, -0.6943994485262857, -2.678906696712641, -2.225599121532921, -3.4789880597821514, -7.807256009149812, 0.06485789938498888, 0.2519174082386341, -0.9574800684921918, -2.032110703481825, -2.5573174051323404, -8.255642418019654, -5.738087616914619, 0.14362880666337688, -6.709200161901082, -1.935847226967976, 2.641289638249772, 0.8869670320046497, -2.5330152771519097, -1.986528931721793, -3.1342111138639672, 2.932901598203454, -1.906424396600994, -4.304887540141975, -4.101136264875378, -0.2319312866877603, 3.4020752756091346, 4.301981166082037, -1.4070352011963625, 5.984971464373727, 4.683635326893307, -4.742415169230915, -1.5439049463805001, 5.370633371409885, 0.5725716784181738, -5.925023896448143, 0.06991679039927097, 5.837594222305221, 3.0649529570543694, -1.559323985654931, -7.597171277688095, -5.214188271497835, -2.8403611239534268, 2.011442459039374, 1.5572049850373852, -0.4261303267269258, 3.5582564783150463, 0.6389429824103932, -4.636506999955764, 5.295481159517538, -1.9835578144901131, 1.7508245722164906, 3.2409916755750574, -4.294214527796064, 8.289711760218593, 3.028808098553764, 3.991145222515106, 4.793551935782939, -1.978324020166908, -0.16840659114401496, -1.963205841065075, 4.275359562289692, -5.000042513560528, 8.513454653555792, 1.5908607035192086, 0.737498881107741, 0.42680379651115496, 6.126358995646088, 3.440422623192991, 3.4955014045251, 2.5170900919564896, -0.1266917669586899, -5.044707426031164, -6.630558967745328, 3.266273865053586, -1.8974378989962075, -0.8278044530971864, -0.6653664320630436, 4.349718295573244, 6.789789481074538, -3.4975662855362772, -4.903441472456432, 0.7658399145059942, -3.9300183991954523, 1.1058292243354442, -0.62922743735843, -1.2092430380273156, 2.953634197462548, 3.776469578462292, 0.5370833392110318, 2.81957303291744, 0.6556348507931271, 2.0188841685057417, 4.245276654980642, 0.2728103125267668, 5.658402789031788, -0.43685424735019274, 3.638863419575634, 5.663745210755879, -1.5633718309121885, 0.24971349326173775, -1.531464647905032, 0.3934410418172694, 4.216815065317226, -2.2767474476079017, -1.960414117483293, 0.6279672488567731, -8.624019776701882, 2.227044916613652, -0.8284256504713737, 2.696911898052253, 1.7790808530754172, -3.510407005360404, -4.392694047999014, -5.906176361954094, -3.694738632142373, -5.49444238301437, -6.6341977087506185, -0.9361460326654647, -3.2964144475583583, -2.6002749682063824, -3.2675377968138193, 2.0893738272571407, -1.6357515576942, -7.7992675575441, -0.8038943364784326, -0.9097785145856223, 1.0469100923037633, -1.5467666548704242, 3.8004104263978182, -0.9191434804072703], [-2.1918006363058256, 1.765878996151424, 4.487020984051457, 4.977281570881678, -0.6814794597281993, -3.9565605518004348, -1.5203502055858307, -5.778494918636916, 5.6681288059530575, -0.6591134407188913, -0.5479916945229448, -7.945185322240225, -3.094871289534091, 3.0112260829395523, 1.3897365410733478, -3.8796611014803855, 2.1811716900505327, -0.32930277439252614, -3.1751622099801935, -2.302413194461437, 3.1568465071197225, -4.599649677679861, 4.218395698341724, -2.3515931916130857, 1.7913667178739057, 1.4551523638061423, 1.7098352688409857, -2.0790102623087336, -2.499846529992011, -11.455149489315849, -3.3085460616715516, -3.2528339779302557, 5.55328838383348, 0.17530768320566967, 5.628532614905057, -7.955639537852031, 3.3559513856519767, 8.061845416458796, -3.26106943046597, 4.703001345259728, 0.18366164307056254, -2.4062878837194033, 4.302748221298185, -1.0143974666492805, 0.6004180848471953, 9.069988860189898, 0.3699218471036711, -5.134851013822087, 1.4840154528722356, -0.256794413099131, 1.6339142236382636, 0.7932183978516131, 0.3548088669855942, -0.7828947155333524, -2.4689459172650055, 3.8178337687235535, -3.147968418626852, 7.02656853161618, 1.221216504342539, -1.527933468214927, -1.5709488294594025, -12.123828720196556, -2.589320556242783, -1.780008075961769, -1.7408984832892822, -3.127239633200221, -2.1971684032703847, -2.181671882502154, 0.8397467537293543, 4.11756306004059, -3.761372222098133, -0.2554003565741097, 6.511877620491525, 6.717978400937475, -0.3831031125194468, 2.914176832937407, -1.514550858421518, -6.977190187756539, -2.223089806726665, -2.17924907910678, 1.9423031069966887, 2.202265627026302, 3.5064188487474692, 0.11476036521088841, 2.8440304875629336, -6.591091336535945, -1.1731163179783344, 6.193039123043279, -6.39472778040624, -8.590593728392214, 3.3550161145978796, 3.2809279273258842, -0.14843630208224182, -0.10680145432914008, -0.040809242834927026, 1.5080437512002958, 2.8079963770493506, 0.728658377891637, -9.565669352328788, 1.5990432432979382, -3.8189225037759544, 6.189656699947723, 5.394736178563248, -3.6982071663484817, 11.235526222566873, -0.9859094977509101, -7.435584824712736, -4.073822042064093, -9.46547227264247, 0.051596571727989995, -6.730700508825865, -1.0948558401506288, 0.9194152999839766, 3.3955431947891763, -6.185903638682873, -2.8708303775236885, 4.708431486346712, 1.7464957364821625, 5.456783011956791, 0.6366724931847438, 4.350212504000481, 5.378320165001382, -5.6903213813866484, -2.902373127464526, 2.702577404154906, 1.3953830453332106, -4.190723917996927, -2.686675458926015, -5.940168462808164, 0.023349551999028176, 8.320596566670837, 3.9440179855624145, -6.326634599871897, 2.1224574291803044, -3.0625429080933944, 3.5113251157496133, 1.5140769787162962, 3.76168368880973, -0.5951782458607359, 0.9210639417402009, -3.327524242473309, -4.683731172163364, -0.13591825308290706, -8.58074930152128, -0.21591859250673878, -2.978015277404604, 2.1511961682897462, -5.895212553182669, 1.526506786923954, -10.180740309727167, 0.2551940616608926, 5.397901769681362, 0.9937012302068776, 4.216897353419058, 5.2690468686173135, 1.6769171519372146, 1.8155068956938334, -1.231059695462071, -5.483447850635455, -1.910876916928062, -0.4097748150518234, -4.53786624512252, 4.091554157289324, 1.8295095172454396, -2.6682725156677707, -9.691851136070527, -2.4762604768697325, -1.558204942380289, -6.159138491035786, 2.7361410109252957, -0.46473234338588865, -5.666693723496329, -0.31539135096153836, -4.487503192775311, -3.40709097969422, -3.516280664653156, -6.503593155885791, -0.5633320077617756, -0.9463451714760046, 9.84762824114545, -0.9922290938717049, 2.2191999313941637, 6.350031311167974, 0.564701984767099, 0.3338731778567348, -5.973756913796509, 6.1280073809301845, -0.961945554754757, 5.596754809393106, 0.009966331587091377, -5.562823692571219, -0.5964391303887937, 3.2233664095128085, -9.669424436419288, -4.936171377139854, 3.94958322488496, 2.2766557688700044, 1.2246434370217367, 3.4425917500791576, 0.12821393584661428, 3.3840961848661535, 2.0206477842077906, -2.8240089822380217, 1.546767763585102, -4.356502174747961, -1.038310114380982, 0.8872585159053551, 1.1547209587806855, -1.828438501194432, -6.781318092969583, 2.020145571419676, -0.8748148729888584, 9.78534677933731, 4.163272871822946, 3.716565101434801, 3.002015941872668, 4.31372529788439, -2.3321728928020082, -0.6606189973521442, -4.384457835400822, 4.751498159582571, 1.0218206479393763, 1.7604372213289592, 0.2605238449064375, 5.280305347771573, 4.511781037272722, 1.7473299033678076, -1.932061868557724, 0.4526313457668547, 3.1172413520933517, -7.994215714885149, -0.012991035989457774, 7.295035894913347, -0.08565850706443187, -1.1973152578568695, -2.4640609025807643, -1.0231007199562017, 1.668316928155141, 2.7926239670772435, 6.570142200735625, -0.3376069175585054, -7.759139158592058, 3.4976069270577144, 1.5127059896715824, -2.301898469785645, -2.4220727453816746, -2.9044341696918288, -3.178509901596486, -10.756580958788135, -2.4647084748554695, -4.5863202082077255, 0.3529566791066637, 1.1285939225835655, -5.931548638097169, -2.28992278993038, 7.546480185124519, -5.662377598409262, -3.30796087829571, 4.833408158532148, -9.314534961318719, 4.543680685642438, -1.191935707368125, -5.423912300170676, 1.3215834395118369, 5.873222960298408, -6.919268523214569, 5.557739266006541, 4.774577970244282, 2.729948134415308, 3.5029810506315036, -1.5732300505431684, 1.1268754452883993, 0.9964336133746036, 2.3830389018410556, 6.938314368593785, 1.7426781688689463, -5.251265370667659, -2.820923955475025, 5.501437518230732, 7.642010618757616, -0.11732063432079375, 1.8406041607196693, -2.737932893087008, 3.051163410863353, 9.059727401047349, 0.8491245838737783, -0.17133201774310672, 1.3586200778966238, 1.2613641647480536, 2.1103487803994376, -1.9868116816646593, 11.815300934798548, 1.7739026804654274, 8.15886037692177, 0.199775021875739, -2.887905262533665, 5.567613128202597, 12.015418601978727, -4.144460497646792, -2.0711419135211866, 1.2944803535676555, -0.6834515850773264, 1.1240242815062036, -0.9049760793044521, -2.6657223496597817, -4.439708450712638, -3.9640082397533707, 1.2588010660891158, -0.11374200585942135, -3.6077499127652803, 1.7381989147214203, 9.402280342427648, 8.507674252285616, 0.10353976801302615, -3.7452701409007254, 1.8711808913588155, 4.16188548566931, 12.808001890846507, -1.269848428904112, -0.7407533129336662, -3.473526116805623, -5.64129151568551, 7.181809821186284, 4.00877896235873, -4.919175049377955, 6.549977253907486, -3.292180918267926, -2.610842953466682, -4.797450575794822, -4.591921271640915, 2.494500106494776, 0.36388912856785277, 1.6822292725962358, -3.9521601606533445, 1.8119916492146513, 0.8678885549233918, 1.4275686343483383, -7.052077763071021, -2.137779333959684, 0.1554461794189923, 6.546578091463896, 6.02482020356488, -1.4741338096343004, 5.802470762730966, 0.5700469025374083, -0.36482147977068835, -2.4321967077605793, 1.2525697272431322, 5.47954125525665, 3.5911093796425546, -0.9021329773833299, -2.816320458522021, -3.288586981354058, 4.936220142251137, -10.1201187346689, -3.4551919022951756, -2.6899501178427005, -0.8441758626634095, -1.7791824269927872, 4.078400714595939, 2.710183861861714, 3.269804653001028, 8.885750356763012, 5.615264746478131, -2.539726694730725, 9.281767694391908, -5.824678603736252, 3.654415157197641, 0.24394245823351418, 11.64825815303184, 4.5920523943131455, 1.6107129116573848, 5.349816112534667, -2.687254808614881, -1.766869061006408, 1.8267587806373788, -1.3129129772284664, 4.898907964045635, -4.534599620257436, 7.164052079187663, -8.56673431768241, 7.689619776059852, -5.547793953967717, 3.342491613461727, -8.822953334335262, 3.028191657859224, 3.0650066852395788, 0.8534315329166451, 3.883007228969083, -0.9097190629440528, -4.28537763876505, -0.3560392097526523, 0.37489209848572796, -1.985993783804375, 3.108075343580326, 1.2212508475068673, 2.174464940982285, -4.346499393614552, 7.865121816031738, -7.45812570719457, -4.526468718449995, 2.1056609003993945, 1.582276646218362, -3.0125074907474385, 12.669234759777874, 4.87758155389326, -0.8467305255124233, -5.670783907265191, -7.3870286073702855, 6.960444828409479, -3.9260792316885977, -2.87165021565538, -0.827506605306542, 2.841084353955478, 7.601595777665234, 1.4985334148921383, 3.849262497955031, 7.005479468674745, -3.3924171505567826, 0.05327639514979074, -1.8440468354961013, -5.398295556573937, 1.84963613721937, -1.7178303355287428, -4.659306323169021, 4.7776730498307, -4.213671997039172, -0.27554299871880567, -9.704733593715027, -1.4911770388413108, 4.2549246019260645, 4.455016858909111, 2.349750842860665, -9.46854775265944, 2.2764286307772754, -6.788851738210207, -2.8465226862115984, -4.725476701939599, -1.877377061078504, -1.8292372310211622, -0.08008507076830935, -0.49955323236098453, 1.1029898177488582, 0.49592308594597023, -3.0810379195338085, -0.15551836304078098, 5.149212365278337, -7.348941495454757, 3.5327272013961206, 4.144805134323004, -3.3808393308448, -5.268150261997568, -3.3202227903234283, 1.2300395746951205, 2.0722509020509667, 3.745951705700801, -6.661152060955906, -4.459925481898328, 5.102027499797252, -5.518277800411615, -2.2363043763733175, -1.9479332079291074, 5.985967363150733, 8.29182850467635, -1.4108646519934116, -2.0779404721723225, -4.906236970156686, -4.1395931762972475, -0.7735419149099305, -0.7679365046628192, 0.8753747425092474, 3.5409509820295284, 6.5068928675114694, 0.3277168161611353, -1.4023603436556775, -4.580038572834205, 6.624008875939153, -1.9233379231960515, 1.9561160036343381, 5.38237500854834, 2.511497134913314, 0.2936927081374545, -3.675499899503716, 2.6897588730521296, -1.1971550146483427, -0.8177134544582426, 3.3059654103031866, -1.2894802851483353, -1.4089395034382801, -2.1506270573795296, -2.392187408266002, 0.6018229826586409, -2.168724203907482, 6.675115130226622, 0.04524882107992077, -4.959863852812858, 0.6396825317618804, 2.851210014294345, 0.44229007834539197, -5.948391888204493, 4.659228170677767, -0.033044185180827405, -8.232222290756706, -0.6819610508243875, 0.11072370672994677, 4.1437634232800304, 3.5313311593237153, 8.721710867760336, 0.46668311839813337, 3.4572683452909914, 0.37129751436731695, -2.1221272113699214, -3.5357725339257344, 12.278540872444225, -3.7089871067900466, -2.8066971617530365, 3.351047098518068, 1.840913476546526, 2.2875709713881855, -2.3621334604155413, 3.09056664764522, 4.98737990539631, -0.4611667654469556, -2.0618484296106927, -1.570073680265178, -2.770025173413996, 4.601151524954493, 3.7491161486043554, -1.0592825338323077, 3.835503312867966, -7.214259311910256, -6.402448351101429, -4.0394461270643385, -0.04712504808928213, 0.9849004154065516, -0.6751581672550246, -1.7031783062591415, -0.6234723436725232, 4.412122458542534, -1.886264376074104, 5.4191210120659346, -3.2305453676466125, 4.299225686189818, -5.061754348588706, -0.5412334809630654, -7.077359953088441, -4.723243106376812, -1.703054372478376, -1.2783623261762782, -2.92152577917805, 1.3875525135405031, -5.401647003424074, 0.03183711701600093, -1.6604004513005957, 1.421689854365113, -0.8975038268547277, 2.1015553176890567, -0.7591832556874781, -8.098811271043068, 1.571404045936883, 0.5678369333190996, -5.158320941898467, -4.992351573178774, -0.6250094697770349, 0.6818266737836528, 2.7518613567758927, 4.86079305261129, 0.09667814585691509, 12.527397077427844, -5.325956795750766, -0.6467352850247059, -2.6247157336604316, 4.474426769557841, 0.6731319470863973, -8.333658386105412, -3.619724469878779, 1.7995148569906065, 3.288537523788848, -4.616489321617307, -9.155449841240491, 10.285466332250733, -12.29009165118111, -4.2138394936033965, 8.888745173957284, -2.8893310078502576, -5.539063343238266, 2.6169621926562927, 5.9307754313542915, -1.87940979188255, 0.9842534036833573, 3.7613333717397293, -1.0246355231415791, 2.5184113944618085, 0.34477400022038707, 2.7104963803769984, 2.2157649704785833, -1.16377046720232, 5.699005905346289, -5.474295579036249, 2.7087658749596097, 4.253074148005656, 0.9098907419764225, 4.770414730701052, 2.4220841024421356, -1.3674719131216604, -4.285685141254992, -14.034181737879555, -8.398018714117626, -0.8140107934931817, -1.4169721631066001, 6.15216076889267, 3.055992254267519, -3.3923700128933345, 0.9479427432221819, 1.3178935920399177, -3.0035118443047146, 6.710746980948059, -0.6733635413407362, -1.247169982049935, -5.0814905469523195, -9.380098779733496, -3.7676557365855667, -0.13823810729862457, -2.3204539223255587, 7.315494777306479, 2.9818102114853238, -0.17253798314870575, 4.216477837188492, -4.967968082204337, -2.7049951934799346, 4.330178245335151, 7.356800592390228, 2.1642669202834335, 2.1710727599992112, -4.1332970104504545, 0.10484293259751828, 0.9472761994178175, 3.23171666902446, -2.5845798702684513, -5.7676641637506965, 1.186029010919764, -3.7774074503869377, 1.1939787240864637, 6.542573072310563, 0.7692959430425048, -4.352253914088458, 7.192723831733386, -1.8755678225956713, -1.580660115953839, 1.359067765508101, -2.6296711249765856, 0.7868208093157649, 0.5995508989541444, -0.049139058632546403, -3.798963887520306, 3.0281927147244967, 3.245476404011127, 3.4369903830036455, 5.108245056249435, 0.3624388454656401, 1.6606791586811163, -3.1155662955115724, -0.9988484259280631, -0.9765917768523334, 8.069292355226535, 4.847378724048398, 1.7182425011247155, -0.20749989399970561, 1.2200952848522297, -0.2835659826174124, 7.448355635145732, -6.186257945737715, 0.8172082985158838, 0.18283325815082024, -7.837647631677912, 3.260693752881686, 6.11166129765268, 0.995310430025192, 4.8490470801146035, 1.2804706986833538, -0.7812320277262887, -6.073914321550095, -2.8881008536264723, -1.3468360261580035, 1.7074740242174173, 2.2692600121138944, 6.255247751277956, -2.9380039068460477, -3.672581126914264, -0.289987279408234, 2.2142979274472148, -8.081874269688774, 2.931417367814741, -0.19391326701871608, 6.481950763579986, -2.12214323770376, -1.7096748541411781, 8.21843996675851, 3.0055699903891906, -5.4690518226043014, -3.6616182670721207, 7.030830430462314, 4.69260828921509, 2.632198751287178, 2.9987152696391632, -4.646027415928393, 4.826849479096612, 1.6643326850063183, -2.734568542231439, -1.5393049374136283, -1.905276153165218, -6.353227366562966, -3.804354565434103, 0.09693841415197701, -3.8760293713948566, -11.955739610356572, 5.1146033457302496, 1.7337969230414338, 5.88137613803884, -2.5676694647380924, -8.322792978203982, -2.98790591287175, 1.3002689331867319, -1.7351330451922908, -5.083047698842841, -5.322904959961901, -1.8528415547710655, -0.6287317457709187, -2.5656491495668456, -3.3458227770051, 0.5131322474050017, -0.7393904744563015, -2.0465815572788673, -7.720233712295477, -1.6905852909084844, -0.14964296926254153, -1.5296623447289281, -2.6547056639204096, -2.4874852187482777, -5.7586948929382045, -3.882086907898233, -1.955213428308908, -6.475461563424602, 3.0765017173041356, 1.195537029707415, -2.2698093049181143, -2.239144896726304, 2.975257031041822, -3.1369393194246786, 3.4824832323023722, -2.423047577138529, 7.462196137122915, -1.7205193281873052, -2.0086949461626733, 3.6281913329481394, 1.8637064760633877, 2.615546528277507, -0.03304091270107449, 1.9835467963241689, 1.551440292433784, 3.742925817051101, 1.4311168748537755, -3.1048137741585027, -0.935369541926217, -2.8305518050501366, 9.799623288995798, -5.900436669608422, 4.35115418891816], [-3.1540350061671023, -2.020738125215447, -0.08664676717969945, 4.444696638802626, 0.7976401593410039, -4.5431396375823425, -2.3072925615689055, -5.0826542847592595, 1.3523026783606793, -0.20196271137737198, 1.536205458911806, -2.38463481257192, 7.657680573298671, 2.036373057683138, 5.031422430219351, -0.5332395894065164, 1.0755811432562312, 7.357436861741369, 9.883242054528672, -1.5166151366599512, -4.920929918135938, -3.7759456575658574, 2.0078340001478088, -7.573316331183651, -6.37096672213635, 4.546140399320841, 3.0220377448244173, -6.619877572724143, 1.597148008870861, 0.3597292289004688, 6.640407551149868, 5.818006309331806, 1.0303469386269593, -3.4339653959186642, -3.4352981323332226, 2.2644965567837856, -0.4918152540203342, -3.5372686108408016, 5.908815179180929, -4.168919355598613, -7.241799713946114, -1.5498714183558335, 0.38216896091420477, 4.9531240526433375, -6.569268723054184, -0.3376845327423554, 2.1112986431174563, 1.5873680556452956, -3.4650885696537337, -0.9533993243856514, -1.9371120987354127, -3.484467338982807, 3.047402974145774, 4.025182546573783, -3.0870614658760274, -6.153986205695046, -1.093858631294435, -3.7604436675427197, 7.559492854602266, 6.6378415022421, -4.835310707843665, 3.5841403060175, -2.350477291552939, 0.5819700228820175, -8.24358878983382, -2.2112713212875135, -4.427992701613315, -0.41626574888917206, -0.49673408972149674, -2.4018161191551437, -1.7133112108696054, 0.9154483967159813, 1.4208936860253802, -3.5038017726069164, -6.558448476206562, 2.1106916357951317, 6.562679812501892, 5.969666482058688, 6.029243428353648, -6.6191496399336796, 6.108476320816834, 6.5188055894501264, -1.5648002312177482, 0.9178857402272587, -2.9097486841827966, -4.508870379015128, -0.1510364249208137, -0.8093134023514585, 6.617678395017519, 5.05674852983555, -3.7192463499100197, -0.17894848744101655, 2.439231153294131, 0.6700120322820878, 6.491965344587476, 3.766357826325018, 2.1967561090326333, 0.32318744317380554, 5.565369972424583, -0.7696878866320542, 2.1063972912715947, 3.465461321389277, -2.0891481072589655, 2.6533944526619146, -6.389027154857594, 4.9222754241667115, 5.67118782366386, -2.287277420440664, 8.974842252134227, -0.3105420182356878, 8.215796836145074, 3.1693855875297174, 1.85762215260692, 6.52641497650694, 6.594388769470325, 4.128313659051333, -6.030956072117674, 2.3221932342456957, 0.7400256608921575, -2.184650646861661, -4.159754259731774, -1.7107540258760625, -1.3065980494113247, 5.441387699243054, 0.6266935594352345, -3.0498484607090437, 0.8131143728435518, -5.533492878544486, -2.1071179295903275, -4.301406685584056, -11.269890297965222, -5.462467530229242, 4.712873189110446, -2.8670259639289237, 2.8832572342079383, -3.6553452773991144, -5.83462118211803, -0.512611739858952, -1.7625476666168338, 8.251113131540219, 5.878260417061614, 1.783199262248227, 3.7925736293245973, 4.345117976174483, 3.8288819057429935, -4.3164072003815965, 0.9675038440001047, 9.08835875604898, -2.192539662564176, 3.7014772420193394, 3.304988098532794, -8.234863803624993, -1.5445050086162193, 0.34926443365453885, -3.598706642804734, 0.7446244384800719, 5.366904826333681, -4.84889975219187, 2.3434554575629347, 5.397449164097273, 2.7353656360285363, -4.406734657479298, 1.7838579733299007, -3.8556182408084405, 10.223874365092083, -1.4683028786279295, 2.6682711133020955, -0.7833753512541146, 3.693140942179247, -4.21242483893732, 0.983812211191284, 10.475494440009644, 5.075373783342715, 8.43387299065702, 1.3920352221946486, -3.734192756408231, 1.3987431560388648, -3.218728169572658, -2.0975734581050767, -10.084424847182227, 0.2529645808627406, 3.3334423956335137, -9.03444069111485, -1.868832233584288, -3.848662585225301, -0.183556865689414, 3.304043341138249, 0.2920861940289555, 5.206300092502211, -2.8156219320194107, 0.3102259889179328, -6.906944564049751, -5.572129723373059, -0.4962969156939124, 3.228080495598006, -4.293073284606163, -9.105129700198553, -6.176692141574745, -12.538988476129681, 0.18538456385710747, 3.959176997991987, 4.669129073942291, 2.26122427762252, -7.710824971058039, -0.6324344400882879, -0.7551875975824008, -2.9915960929907035, 3.9580924894972753, 0.910015128312553, 3.697909311539538, -4.881419520365763, -3.1716635303815766, -5.684228219980332, -7.121333871885597, -9.764393224007675, 5.073945181151501, -5.9890833108629336, 0.09676530340841799, -1.4222602783683846, 1.2369738988904908, -4.5083075565753825, 0.16909405468538313, -1.5217928145820339, -8.754392095790914, 10.393284002180144, 3.0142721172381832, -0.9188016660673628, 1.7025292121726994, -2.000653592890972, -6.343063352686988, 2.2798613320114294, -5.985188776449399, 3.7403725114981263, -0.6602231669353265, -4.297720293880512, 1.4705663533961781, -0.8427140148933459, -0.6017718512405215, 2.72941121518325, -4.1707189631206445, -1.3401235550230184, 3.917899171561854, -1.365788784645633, 1.8173511995054996, 1.9017251087535372, 3.2745954284910934, 0.4204137437503325, 4.745143266852197, 5.7669252988394435, 4.083229265974939, 5.590462189912068, -5.220693306152057, 1.0683809537420805, 8.296467076835187, -2.9408874662988036, -7.227411282125948, 2.8665490853278217, 0.3028406092927037, 6.863146964474921, 7.574935329180815, -0.3911770279056937, 1.0557340809021012, -0.21397049837735566, -8.5539090350016, 0.5833170131753254, 1.9888193030059695, -1.6587534959436392, -7.66752231108046, 3.849580961734893, 2.57134399394213, 4.523615858464589, 4.222097573939332, -8.933731942916499, 2.3732236592371114, -1.981405936286834, -1.4244755693426672, -4.292664469332923, 3.287932528591541, -4.279377561714767, 0.3349653557842653, 4.579801115075483, -0.5338732128689955, 0.7122477701932255, -1.7795927961355689, -2.423938756026983, 2.902663245008275, -3.097002783121295, 2.7597815384559867, -1.4792045172527302, -1.9447518952499667, 5.9222962698592045, 0.907823791583854, 1.204046752951257, -2.3634490540129356, -5.421961818331871, -1.7744993011448273, -0.20399716970637088, -5.310506201954817, -1.9307178148093098, 2.725340908419384, 6.942608280335187, -3.206565953216181, 2.3268094890288475, 4.1383667675134586, 2.376728614823079, 5.514945977844845, 9.743737120639778, -5.076493975057696, 0.11440949423454172, 6.546137661366555, 1.4890653481697023, -1.4985894639671657, -8.325214281742102, 3.0710140671786643, 7.372651713855671, -4.740467693462027, -4.932269615305505, 0.5994495268026498, -2.9086693531366943, 4.185035233495723, 7.661703388305432, -6.444482250093929, -4.961407960299696, -3.8077746091205915, 2.495229752390765, -5.901020699609191, -2.7987386168819337, 1.7244860254295091, -2.928530931518196, -0.8660608934163287, -1.5576902291451944, -5.573649618447327, -6.107037062078574, 4.520969467717608, -3.911289940561954, 1.2549815344809394, -4.586500587001739, 2.0699742112572403, 0.5543790573293921, -1.4033800890439752, 1.412144617884867, -4.733022789965299, 5.3804947739755375, -7.507642395965542, -3.823492984595387, 2.1632807081223913, 6.285363949896417, 3.5601605762003126, -4.150648671780721, -5.278175196351516, 1.5195029119398225, -5.803163687671063, 0.8147270476590115, -3.5730747221450856, 5.264504856272723, 7.594999233301314, 13.5390666247439, -2.631910969859229, 5.897717767355326, -6.655392891729332, -2.223250876722798, -3.403345153932046, -0.8705512679186995, -8.86113475791481, 2.293635254766225, -1.9410878700466871, 6.476333779749449, 6.601743130219174, -3.7379731078412117, -6.088269340802797, -3.304292159989529, -1.9724063845200606, -0.8341042802972235, -6.823736844380419, 0.3224894042386329, -3.3114273105743903, -3.748365942445758, 0.5837736118643287, 6.822258039360254, -3.8541718185128286, -3.610740862111032, 2.028761078273195, 1.094651321447486, -4.416448413331514, 4.864008030916978, -1.7180970778928752, 4.598546210472053, 5.9304527750211085, -3.0612167826042604, 0.261331308723872, -5.921534658142831, -1.5642428709201341, 0.037760771125198905, -7.3340169470658845, 1.8350151179720262, 1.4503308764903946, 11.116057296290899, 6.035622738621913, -1.5606986469722677, -4.45806965886768, 3.692680218022042, 2.9387470761389363, -5.198773813221087, 4.245129123054027, -3.918571732460775, -5.682000779497663, -3.5635959216339534, 8.343535344037507, -0.5272671408189712, -1.3008048035803412, -5.011179341251096, 3.4706170439556123, 0.2076154817960424, -7.536054464804837, -4.74455402970886, 2.4128152649483505, 3.7019189242180426, -1.1125896159307493, 9.079374755972285, -1.1238479461327833, 1.8973629584031881, 2.629028775150831, -3.0992503918035976, -1.016045696198555, -1.9992639270752999, 2.1258865449226243, 2.204294524303004, -0.845746370059175, 8.91252834927473, 10.143799495235982, -0.18475291674223504, -1.1870259192450061, -3.1652263852300075, 6.002968738812293, 3.924271183513459, -3.540181909714909, 14.880639703870937, 0.6617352532626524, 2.589788498400744, 2.7478150665247516, 11.675420227007422, 5.2367000123319185, 1.157662545094703, -6.7553868555654795, -0.8458140405577637, 1.5565749431259268, -4.705051862128589, 1.3383865560506922, 1.959618681831468, -2.3959533185750805, 0.11626994819541454, -4.124882003401334, 0.35442593750266516, -3.8501855699167464, 3.7029748834968723, -3.381437095350276, 0.5649483222098262, -11.32512991678661, -6.1324679475564885, -4.563920942175089, 0.5140362736342173, 0.7939672150933952, 1.0197597976740793, -5.607845762369717, -0.5166839541053438, -1.7310748214672713, -2.985574399729003, -0.4686541687626199, -5.39736997872729, -4.659195709407849, -1.6073097226241007, -6.934293622674041, -9.888487436963349, 0.8510380328959133, 4.33653685449839, 4.78364335546474, -3.5580870512496543, 4.898660247670104, -1.4485069206268448, -0.5712684775924897, 1.753988968367573, 3.7397787123698447, 2.5014518416899785, -2.581463208494958, 1.4857267085527404, -1.909684711522063, -4.1677785225698925, 1.7496698967213085, -4.624651699560648, -6.271081955577307, 5.4472916374122695, 7.404755776551088, 8.145180427083606, -1.8059454398757693, 3.059721670468268, -2.154979727184695, -1.5511011360878972, 1.2116472348747622, -8.58987877198499, -3.3443486922487953, -1.3029054580995274, 2.630171876015667, 2.947882288198821, 2.2451065732156277, 9.120529249912583, -5.964698266304865, -4.034955542555735, 2.449752663307, 0.5755673590524161, -0.8276020460655923, -2.6094480146561376, 3.427909701313462, -8.911762596202879, -5.337389173203354, 6.209496469478136, -0.9345715920008887, 5.005989139000113, -2.6086760904114534, -1.2371731363748044, 7.002066850988555, -5.224082918571258, 1.5645560259521762, -0.7692860555702479, 6.204443979390327, -0.6967002222217799, -4.449898708724102, -7.653615800602314, -1.6362965074309792, -0.8547420118014225, 1.9664326000757595, 8.861799563875847, -1.8939731080604214, -0.8390076600311921, -0.003965018780730351, -0.9395414181844064, 5.872693872734968, -1.7365043106974285, 1.2006762410119558, -5.6203686888755175, 0.2829768690749196, 8.15336989575268, 0.26737907647222336, -2.455564838339799, 0.6788863779927596, -4.2536811089425415, -2.713264142993788, -4.7135486230427075, -5.169266752395333, -0.07572884133027316, 13.054044225742475, 0.1621669766419963, 3.712177448807814, -1.8719057716625742, 2.208600293821909, 3.3773803917625713, -5.981090380335415, -1.1913656026387052, 6.596932617782843, -2.9147848284150046, 2.4039587862927205, -1.5382798360276004, 1.8230933855073361, 2.728873251324123, 0.823032325193585, 4.078914862909018, -6.268357003652327, 2.6939354687068704, -1.4459685084879117, -11.779017372589108, 1.0595535131935239, 5.999200986440663, 5.063552360621441, -4.051017781195348, -4.200926085990273, 1.83798680262532, 4.248348705091646, 7.722790932649712, 4.987849448565799, 2.839358669377723, 3.7705758532843903, -1.1824335647268556, 1.9165786916978524, 4.944876977194258, -5.207222809631711, -0.9091059758376047, 0.3164449068536016, -4.430079461198081, -6.706423973281699, 3.067581088136782, -1.875658745986943, 3.4495256869820943, 2.814607310148645, -1.3441524509613845, -7.888333086460464, -2.637644674532077, -1.7565415897888343, 1.5529337433600223, -3.972247622006087, 3.6095619775644088, 3.9253817011429426, -0.7675240690492446, -1.638820308919743, -3.617911769583024, 2.9781671464891915, 3.1199763007192547, 3.3650608247989586, 6.323806471672638, 8.320639514356905, -3.339904844909611, 3.001025663435655, -0.9233002513396521, -6.074049617387419, -1.963562787020708, -7.73889915966461, 3.5932238215970385, 4.9179012541779965, -3.704984506397212, 0.22005397738027743, -0.16171261992179575, 8.888176690477973, 2.8038435434354865, -7.581308068629935, 4.581280743988908, 0.2541607984748336, 9.722496434685967, -5.283597786955157, 8.711951863466883, 1.0955675882128477, -3.1279165633524215, 4.31088435617804, -4.563032831139013, 2.7457549852711804, -0.5445985293729184, -0.9543814681857425, 5.0961758386718525, 1.9572735877256697, -3.4459285524138563, -6.779459862913471, 5.224483407454201, 6.822820928706714, -2.441730346534526, 5.8207343288221, 1.676974004109077, -2.636664705208092, 1.9337647943205702, 0.2311688929007717, 0.9388779551222128, 5.95936143105861, 6.790849641470687, 5.5411639506938615, -2.7400723154088866, 2.3619545494546696, 3.585440557838521, -6.290068524638438, 1.7448495876692196, 1.2087107129929233, 1.6418766828206834, -0.24201918344867385, -5.882147925516163, 4.137424159484321, 2.4344775915485135, 5.498807190275209, -2.344648644191634, 4.35071196645595, -9.259963708345047, -2.1913385043626916, -1.2004788415232497, -0.20747809108002693, 8.167833451918012, -6.133360047540647, 0.7317688652836942, 7.807640846730869, 8.134676271559208, 4.319363615356828, -12.73364886388492, -0.41346237788832463, -6.05954201533725, 3.2368468995338433, -2.4709750508402175, -1.749038361853263, -4.706900847667145, 5.970333167963108, 1.4324179900478242, 0.9912810054296533, 6.630956008930062, 1.3779570373111616, -7.576113393650638, 3.063681598441539, 2.016964464268695, -6.520045484452649, 6.748480960527532, -5.250742255282878, -3.8090195565629816, -9.408991339749178, -8.924602587141393, 3.8365603829136035, 1.267922666214272, 2.8049875224797227, -1.777348242026817, 3.5374988429878576, -9.215867875951446, 2.0618513649923695, -9.051590792205907, -12.95560482532214, -0.7915367683751833, -0.8412965384942461, -8.403447970109692, 10.111506447182373, 4.080539692176791, 0.32779216998548516, 1.3318858976328654, -3.0457693248840187, 9.156039661403124, 1.9015301349243943, -2.550255336059953, 4.646033658567042, -4.975935079347445, 2.332371787360278, -5.960499398428448, 5.148200717400509, 4.053750754310665, 0.09458767283765344, -6.427272916458363, -0.16288439551134715, 3.334489618599492, 2.0396943057799337, 3.56432277421805, 3.498157443437401, 5.734069535351223, 2.59733645971257, 0.13957703595601315, -3.153557440528379, 8.27500696380787, -0.49280053822743186, 9.132113732503754, 1.0037893254845716, 2.3452338995497293, -9.233945990063772, 0.2604108939207396, -1.913040180904891, -7.503745166634308, 3.3422844626196158, -1.0376039456256823, -6.802325777307918, -4.823018052899543, 11.044123984304907, 8.795969518065217, -3.184855684391996, -0.3765574624510917, -0.17703970233050303, 1.172706015244387, 7.866965392876309, -2.6855153990571936, 3.3802585668534624, 2.7125060181853042, 2.9666560176765606, -1.2205137279181584, -0.5328663173297138, -2.1247081459919155, -1.6188020502976186, -5.4371426201224615, 4.359135026026772, 3.229290143605507, -4.301281065073039, -2.430066112482091, -7.7819081535259285, 3.248434742367828, 3.630775161761143]], "intercept_": [-0.7064788248345912, 2.9935543352292737, 0.3355036427607846, -3.798337699755128]}}